Language model created by QuickLM on Mon Aug 17 06:29:32 EDT 2015
Copyright (c) 1996-2010 Carnegie Mellon University and Alexander I. Rudnicky

The model is in standard ARPA format, designed by Doug Paul while he was at MITRE.

The code that was used to produce this language model is available in Open Source.
Please visit http://www.speech.cs.cmu.edu/tools/ for more information

The (fixed) discount mass is 0.5. The backoffs are computed using the ratio method.
This model based on a corpus of 17 sentences and 24 words

\data\
ngram 1=24
ngram 2=39
ngram 3=26

\1-grams:
-0.8559 </s> -0.3010
-0.8559 <s> -0.2359
-1.7853 A -0.2939
-2.0864 BROWSER -0.2359
-2.0864 CALENDAR -0.2359
-2.0864 E-MAIL -0.2359
-2.0864 EIGHT -0.2359
-2.0864 FIVE -0.2359
-2.0864 FOUR -0.2359
-2.0864 MAPS -0.2359
-2.0864 MUSIC -0.2975
-2.0864 NEW -0.2975
-2.0864 NINE -0.2359
-2.0864 NOTE -0.2359
-2.0864 ONE -0.2359
-1.4843 OPEN -0.2866
-2.0864 PICTURE -0.2359
-2.0864 PLAYER -0.2359
-2.0864 SEARCH -0.2359
-2.0864 SEVEN -0.2359
-2.0864 SIX -0.2359
-1.7853 TAKE -0.2939
-2.0864 THREE -0.2359
-2.0864 TWO -0.2359

\2-grams:
-1.5315 <s> EIGHT 0.0000
-1.5315 <s> FIVE 0.0000
-1.5315 <s> FOUR 0.0000
-1.5315 <s> NEW 0.0000
-1.5315 <s> NINE 0.0000
-1.5315 <s> ONE 0.0000
-0.9294 <s> OPEN 0.0000
-1.5315 <s> SEARCH 0.0000
-1.5315 <s> SEVEN 0.0000
-1.5315 <s> SIX 0.0000
-1.2304 <s> TAKE 0.0000
-1.5315 <s> THREE 0.0000
-1.5315 <s> TWO 0.0000
-0.6021 A NOTE 0.0000
-0.6021 A PICTURE 0.0000
-0.3010 BROWSER </s> -0.3010
-0.3010 CALENDAR </s> -0.3010
-0.3010 E-MAIL </s> -0.3010
-0.3010 EIGHT </s> -0.3010
-0.3010 FIVE </s> -0.3010
-0.3010 FOUR </s> -0.3010
-0.3010 MAPS </s> -0.3010
-0.3010 MUSIC PLAYER 0.0000
-0.3010 NEW E-MAIL 0.0000
-0.3010 NINE </s> -0.3010
-0.3010 NOTE </s> -0.3010
-0.3010 ONE </s> -0.3010
-0.9031 OPEN BROWSER 0.0000
-0.9031 OPEN CALENDAR 0.0000
-0.9031 OPEN MAPS 0.0000
-0.9031 OPEN MUSIC 0.0000
-0.3010 PICTURE </s> -0.3010
-0.3010 PLAYER </s> -0.3010
-0.3010 SEARCH </s> -0.3010
-0.3010 SEVEN </s> -0.3010
-0.3010 SIX </s> -0.3010
-0.3010 TAKE A 0.0000
-0.3010 THREE </s> -0.3010
-0.3010 TWO </s> -0.3010

\3-grams:
-0.3010 <s> EIGHT </s>
-0.3010 <s> FIVE </s>
-0.3010 <s> FOUR </s>
-0.3010 <s> NEW E-MAIL
-0.3010 <s> NINE </s>
-0.3010 <s> ONE </s>
-0.9031 <s> OPEN BROWSER
-0.9031 <s> OPEN CALENDAR
-0.9031 <s> OPEN MAPS
-0.9031 <s> OPEN MUSIC
-0.3010 <s> SEARCH </s>
-0.3010 <s> SEVEN </s>
-0.3010 <s> SIX </s>
-0.3010 <s> TAKE A
-0.3010 <s> THREE </s>
-0.3010 <s> TWO </s>
-0.3010 A NOTE </s>
-0.3010 A PICTURE </s>
-0.3010 MUSIC PLAYER </s>
-0.3010 NEW E-MAIL </s>
-0.3010 OPEN BROWSER </s>
-0.3010 OPEN CALENDAR </s>
-0.3010 OPEN MAPS </s>
-0.3010 OPEN MUSIC PLAYER
-0.6021 TAKE A NOTE
-0.6021 TAKE A PICTURE

\end\
