Language model created by QuickLM on Wed Aug 26 12:21:55 EDT 2015
Copyright (c) 1996-2010 Carnegie Mellon University and Alexander I. Rudnicky

The model is in standard ARPA format, designed by Doug Paul while he was at MITRE.

The code that was used to produce this language model is available in Open Source.
Please visit http://www.speech.cs.cmu.edu/tools/ for more information

The (fixed) discount mass is 0.5. The backoffs are computed using the ratio method.
This model based on a corpus of 13 sentences and 15 words

\data\
ngram 1=15
ngram 2=26
ngram 3=13

\1-grams:
-0.7782 </s> -0.3010
-0.7782 <s> -0.2218
-1.8921 cancel -0.2218
-1.8921 eight -0.2218
-1.8921 five -0.2218
-1.8921 four -0.2218
-1.8921 missing -0.2218
-1.8921 nine -0.2218
-1.8921 oh -0.2218
-1.8921 one -0.2218
-1.8921 seven -0.2218
-1.8921 six -0.2218
-1.8921 three -0.2218
-1.8921 two -0.2218
-1.8921 zero -0.2218

\2-grams:
-1.4150 <s> cancel 0.0000
-1.4150 <s> eight 0.0000
-1.4150 <s> five 0.0000
-1.4150 <s> four 0.0000
-1.4150 <s> missing 0.0000
-1.4150 <s> nine 0.0000
-1.4150 <s> oh 0.0000
-1.4150 <s> one 0.0000
-1.4150 <s> seven 0.0000
-1.4150 <s> six 0.0000
-1.4150 <s> three 0.0000
-1.4150 <s> two 0.0000
-1.4150 <s> zero 0.0000
-0.3010 cancel </s> -0.3010
-0.3010 eight </s> -0.3010
-0.3010 five </s> -0.3010
-0.3010 four </s> -0.3010
-0.3010 missing </s> -0.3010
-0.3010 nine </s> -0.3010
-0.3010 oh </s> -0.3010
-0.3010 one </s> -0.3010
-0.3010 seven </s> -0.3010
-0.3010 six </s> -0.3010
-0.3010 three </s> -0.3010
-0.3010 two </s> -0.3010
-0.3010 zero </s> -0.3010

\3-grams:
-0.3010 <s> cancel </s>
-0.3010 <s> eight </s>
-0.3010 <s> five </s>
-0.3010 <s> four </s>
-0.3010 <s> missing </s>
-0.3010 <s> nine </s>
-0.3010 <s> oh </s>
-0.3010 <s> one </s>
-0.3010 <s> seven </s>
-0.3010 <s> six </s>
-0.3010 <s> three </s>
-0.3010 <s> two </s>
-0.3010 <s> zero </s>

\end\
